#pragma once
#include <cstdarg>
namespace Eloquent {
    namespace ML {
        namespace Port {
            class SVM {
                public:
                    /**
                    * Predict class for features vector
                    */
                    int predict(float *x) {
                        float kernels[165] = { 0 };
                        float decisions[1] = { 0 };
                        int votes[2] = { 0 };
                        kernels[0] = compute_kernel(x,   0.952008031213  , 1.174064708612  , -0.0  , 0.209070372379  , -0.321124511428  , -0.488686787769  , -0.574540762156  , 0.821056891788 );
                        kernels[1] = compute_kernel(x,   -0.847628105034  , 1.251506627283  , -0.0  , 0.591397060021  , 1.251504812412  , 0.398069370169  , -0.574540762156  , -1.217942398392 );
                        kernels[2] = compute_kernel(x,   1.163729929595  , -1.381518607534  , -0.0  , 0.591397060021  , 1.236668686715  , -0.488686787769  , -0.574540762156  , -1.217942398392 );
                        kernels[3] = compute_kernel(x,   -0.847628105034  , -0.297331746139  , -0.0  , 0.209070372379  , 1.192160309626  , 0.398069370169  , -0.574540762156  , -1.217942398392 );
                        kernels[4] = compute_kernel(x,   -0.847628105034  , -0.452215583481  , -0.0  , -0.364419659085  , -1.181619801831  , -0.488686787769  , -0.574540762156  , 0.821056891788 );
                        kernels[5] = compute_kernel(x,   1.004938505808  , 1.174064708612  , -0.0  , -0.364419659085  , -0.692027653843  , 0.398069370169  , 1.740520544178  , 0.821056891788 );
                        kernels[6] = compute_kernel(x,   0.475633759853  , -0.994309014178  , -0.0  , -0.364419659085  , -0.328542574277  , -0.488686787769  , -0.574540762156  , 0.821056891788 );
                        kernels[7] = compute_kernel(x,   -0.847628105034  , -0.761983258165  , -0.0  , 0.4002337162  , 1.39244800653  , 0.398069370169  , -0.574540762156  , -1.217942398392 );
                        kernels[8] = compute_kernel(x,   1.269590878786  , 0.709413196585  , -0.0  , 0.017907028557  , -0.031820060344  , -1.375442945707  , -0.574540762156  , 0.821056891788 );
                        kernels[9] = compute_kernel(x,   1.190195166892  , 0.709413196585  , -0.0  , 0.782560403842  , 1.399866069378  , -0.488686787769  , -0.574540762156  , -1.217942398392 );
                        kernels[10] = compute_kernel(x,   -0.847628105034  , 0.32220360323  , -0.0  , 0.782560403842  , 1.110561618294  , 2.171581686046  , -0.574540762156  , -1.217942398392 );
                        kernels[11] = compute_kernel(x,   1.084334217701  , 1.251506627283  , -0.0  , 0.209070372379  , -0.343378699973  , -0.488686787769  , -0.574540762156  , 0.821056891788 );
                        kernels[12] = compute_kernel(x,   -0.847628105034  , -1.14919285152  , -0.0  , -0.364419659085  , -1.263218493163  , -0.488686787769  , -0.574540762156  , 0.821056891788 );
                        kernels[13] = compute_kernel(x,   -0.847628105034  , 0.012435928546  , -0.0  , -0.364419659085  , -1.196455927528  , -0.488686787769  , -0.574540762156  , 0.821056891788 );
                        kernels[14] = compute_kernel(x,   0.475633759853  , -1.84617011956  , -0.0  , -0.364419659085  , -0.054074248889  , -0.488686787769  , -0.574540762156  , 0.821056891788 );
                        kernels[15] = compute_kernel(x,   1.004938505808  , 2.877786919375  , -0.0  , 0.017907028557  , 0.03494250529  , -1.375442945707  , -0.574540762156  , 0.821056891788 );
                        kernels[16] = compute_kernel(x,   -0.847628105034  , -1.458960526205  , -0.0  , 0.4002337162  , 1.377611880833  , 0.398069370169  , -0.574540762156  , -1.217942398392 );
                        kernels[17] = compute_kernel(x,   -0.847628105034  , 0.554529359243  , -0.0  , -0.364419659085  , -1.248382367466  , -0.488686787769  , -0.574540762156  , 0.821056891788 );
                        kernels[18] = compute_kernel(x,   -0.847628105034  , 1.483832383296  , -0.0  , 0.4002337162  , 1.333103503743  , 0.398069370169  , -0.574540762156  , -1.217942398392 );
                        kernels[19] = compute_kernel(x,   -0.847628105034  , 0.554529359243  , -0.0  , -0.364419659085  , -1.226128178921  , -0.488686787769  , -0.574540762156  , 0.821056891788 );
                        kernels[20] = compute_kernel(x,   -0.847628105034  , 0.554529359243  , -0.0  , -0.555583002906  , -1.137111424742  , -0.488686787769  , -0.574540762156  , 0.821056891788 );
                        kernels[21] = compute_kernel(x,   0.475633759853  , -0.297331746139  , -0.0  , -0.555583002906  , 0.161049573711  , -0.488686787769  , -0.574540762156  , 0.821056891788 );
                        kernels[22] = compute_kernel(x,   0.87261231932  , 1.483832383296  , -0.0  , 0.017907028557  , -0.143091003069  , -0.488686787769  , -0.574540762156  , 0.821056891788 );
                        kernels[23] = compute_kernel(x,   1.163729929595  , 0.864297033928  , -0.0  , 0.782560403842  , 1.39244800653  , -0.488686787769  , -0.574540762156  , -1.217942398392 );
                        kernels[24] = compute_kernel(x,   1.057868980404  , -1.381518607534  , -0.0  , 0.017907028557  , -0.424977391305  , -0.488686787769  , -0.574540762156  , 0.821056891788 );
                        kernels[25] = compute_kernel(x,   -0.847628105034  , -1.226634770191  , -0.0  , 0.782560403842  , 1.088307429749  , 2.171581686046  , -0.574540762156  , -1.217942398392 );
                        kernels[26] = compute_kernel(x,   -0.847628105034  , 0.554529359243  , -0.0  , -0.555583002906  , -1.196455927528  , -0.488686787769  , -0.574540762156  , 0.821056891788 );
                        kernels[27] = compute_kernel(x,   -0.847628105034  , -0.37477366481  , -0.0  , 0.4002337162  , 1.362775755137  , 0.398069370169  , -0.574540762156  , -1.217942398392 );
                        kernels[28] = compute_kernel(x,   -0.847628105034  , 0.554529359243  , -0.0  , -0.364419659085  , -1.218710116073  , -0.488686787769  , -0.574540762156  , 0.821056891788 );
                        kernels[29] = compute_kernel(x,   1.004938505808  , -0.761983258165  , -0.0  , 0.017907028557  , -0.024401997496  , -1.375442945707  , -0.574540762156  , 0.821056891788 );
                        kernels[30] = compute_kernel(x,   -0.847628105034  , -1.304076688862  , -0.0  , -0.364419659085  , -1.151947550438  , -0.488686787769  , -0.574540762156  , 0.821056891788 );
                        kernels[31] = compute_kernel(x,   -0.847628105034  , 0.089877847217  , -0.0  , -0.173256315264  , -1.456088127219  , -1.375442945707  , -0.574540762156  , 0.821056891788 );
                        kernels[32] = compute_kernel(x,   -0.847628105034  , -0.37477366481  , -0.0  , 0.782560403842  , 1.088307429749  , 2.171581686046  , -0.574540762156  , -1.217942398392 );
                        kernels[33] = compute_kernel(x,   -0.847628105034  , -2.465705468929  , -0.0  , 0.782560403842  , 1.370193817985  , -0.488686787769  , -0.574540762156  , -1.217942398392 );
                        kernels[34] = compute_kernel(x,   -0.847628105034  , 0.941738952599  , -0.0  , 0.782560403842  , 1.095725492598  , 2.171581686046  , -0.574540762156  , -1.217942398392 );
                        kernels[35] = compute_kernel(x,   -0.847628105034  , 1.561274301967  , -0.0  , 0.4002337162  , 1.385029943682  , 0.398069370169  , -0.574540762156  , -1.217942398392 );
                        kernels[36] = compute_kernel(x,   -0.847628105034  , 0.167319765888  , -0.0  , 0.4002337162  , 1.340521566592  , 0.398069370169  , -0.574540762156  , -1.217942398392 );
                        kernels[37] = compute_kernel(x,   1.004938505808  , 0.32220360323  , -0.0  , -0.364419659085  , -0.625265088209  , 0.398069370169  , 1.740520544178  , 0.821056891788 );
                        kernels[38] = compute_kernel(x,   -0.847628105034  , -1.304076688862  , -0.0  , -0.364419659085  , -1.166783676135  , -0.488686787769  , -0.574540762156  , 0.821056891788 );
                        kernels[39] = compute_kernel(x,   0.846147082022  , -1.14919285152  , -0.0  , 0.017907028557  , -0.143091003069  , -0.488686787769  , -0.574540762156  , 0.821056891788 );
                        kernels[40] = compute_kernel(x,   0.952008031213  , 0.864297033928  , -0.0  , 0.4002337162  , -0.476903831243  , -0.488686787769  , -0.574540762156  , 0.821056891788 );
                        kernels[41] = compute_kernel(x,   0.87261231932  , 1.79360005798  , -0.0  , -0.173256315264  , -0.002147808951  , -0.488686787769  , -0.574540762156  , 0.821056891788 );
                        kernels[42] = compute_kernel(x,   0.449168522556  , 0.941738952599  , -0.0  , -0.173256315264  , -0.395305139911  , -0.488686787769  , -0.574540762156  , 0.821056891788 );
                        kernels[43] = compute_kernel(x,   1.004938505808  , 0.554529359243  , -0.0  , -0.364419659085  , -0.66235540245  , 1.284825528108  , 1.740520544178  , 0.821056891788 );
                        kernels[44] = compute_kernel(x,   -0.847628105034  , 0.554529359243  , -0.0  , 0.209070372379  , 1.25892287526  , 0.398069370169  , -0.574540762156  , -1.217942398392 );
                        kernels[45] = compute_kernel(x,   0.87261231932  , -0.142447908796  , -0.0  , 0.017907028557  , -0.113418751676  , -0.488686787769  , -0.574540762156  , 0.821056891788 );
                        kernels[46] = compute_kernel(x,   -0.847628105034  , -0.761983258165  , -0.0  , 0.4002337162  , 1.251504812412  , 0.398069370169  , -0.574540762156  , -1.217942398392 );
                        kernels[47] = compute_kernel(x,   1.110799454999  , -0.994309014178  , -0.0  , 0.209070372379  , -0.343378699973  , -0.488686787769  , -0.574540762156  , 0.821056891788 );
                        kernels[48] = compute_kernel(x,   -0.847628105034  , 0.554529359243  , -0.0  , -0.364419659085  , -1.211292053225  , -0.488686787769  , -0.574540762156  , 0.821056891788 );
                        kernels[49] = compute_kernel(x,   -0.847628105034  , -0.994309014178  , -0.0  , 0.591397060021  , 1.333103503743  , 0.398069370169  , -0.574540762156  , -1.217942398392 );
                        kernels[50] = compute_kernel(x,   -0.847628105034  , -0.839425176836  , -0.0  , 0.591397060021  , 1.318267378047  , 0.398069370169  , -0.574540762156  , -1.217942398392 );
                        kernels[51] = compute_kernel(x,   -0.821162867736  , 1.79360005798  , -0.0  , -0.364419659085  , -1.634121635578  , -1.375442945707  , -0.574540762156  , 0.821056891788 );
                        kernels[52] = compute_kernel(x,   -0.847628105034  , 2.103367732665  , -0.0  , -0.173256315264  , 0.947364235632  , -1.375442945707  , -0.574540762156  , -1.217942398392 );
                        kernels[53] = compute_kernel(x,   -0.847628105034  , 0.786855115256  , -0.0  , 0.4002337162  , 1.377611880833  , 0.398069370169  , -0.574540762156  , -1.217942398392 );
                        kernels[54] = compute_kernel(x,   -0.847628105034  , -0.297331746139  , -0.0  , 0.209070372379  , 1.266340938109  , 0.398069370169  , -0.574540762156  , -1.217942398392 );
                        kernels[55] = compute_kernel(x,   0.422703285258  , -1.613844363547  , -0.0  , -0.364419659085  , -0.417559328456  , -0.488686787769  , -0.574540762156  , 0.821056891788 );
                        kernels[56] = compute_kernel(x,   -0.847628105034  , -0.684541339494  , -0.0  , -0.173256315264  , 1.177324183929  , 0.398069370169  , -0.574540762156  , -1.217942398392 );
                        kernels[57] = compute_kernel(x,   0.978473268511  , -0.529657502152  , -0.0  , -0.364419659085  , -0.625265088209  , 1.284825528108  , 1.740520544178  , 0.821056891788 );
                        kernels[58] = compute_kernel(x,   0.422703285258  , -0.994309014178  , -0.0  , -0.173256315264  , -0.462067705546  , -0.488686787769  , -0.574540762156  , 0.821056891788 );
                        kernels[59] = compute_kernel(x,   -0.847628105034  , -0.219889827467  , -0.0  , -0.555583002906  , -1.211292053225  , -0.488686787769  , -0.574540762156  , 0.821056891788 );
                        kernels[60] = compute_kernel(x,   -0.847628105034  , -1.226634770191  , -0.0  , -0.364419659085  , -1.151947550438  , -0.488686787769  , -0.574540762156  , 0.821056891788 );
                        kernels[61] = compute_kernel(x,   -0.847628105034  , 1.79360005798  , -0.0  , 0.017907028557  , 1.236668686715  , 0.398069370169  , -0.574540762156  , -1.217942398392 );
                        kernels[62] = compute_kernel(x,   -0.847628105034  , 0.709413196585  , -0.0  , -0.746746346727  , 1.147651932536  , -1.375442945707  , -0.574540762156  , -1.217942398392 );
                        kernels[63] = compute_kernel(x,   -0.847628105034  , 0.399645521901  , -0.0  , 0.4002337162  , 1.340521566592  , 0.398069370169  , -0.574540762156  , -1.217942398392 );
                        kernels[64] = compute_kernel(x,   0.475633759853  , -1.536402444876  , -0.0  , -0.364419659085  , -0.165345191614  , -0.488686787769  , -0.574540762156  , 0.821056891788 );
                        kernels[65] = compute_kernel(x,   0.449168522556  , -0.607099420823  , -0.0  , 0.017907028557  , -0.424977391305  , -0.488686787769  , -0.574540762156  , 0.821056891788 );
                        kernels[66] = compute_kernel(x,   0.978473268511  , -1.613844363547  , -0.0  , -0.364419659085  , -0.66235540245  , 1.284825528108  , 1.740520544178  , 0.821056891788 );
                        kernels[67] = compute_kernel(x,   -0.847628105034  , 1.096622789941  , -0.0  , -0.555583002906  , -1.181619801831  , -0.488686787769  , -0.574540762156  , 0.821056891788 );
                        kernels[68] = compute_kernel(x,   1.004938505808  , 0.167319765888  , -0.0  , -0.173256315264  , -0.054074248889  , -1.375442945707  , -0.574540762156  , 0.821056891788 );
                        kernels[69] = compute_kernel(x,   1.004938505808  , -1.536402444876  , -0.0  , -0.173256315264  , -0.068910374586  , -1.375442945707  , -0.574540762156  , 0.821056891788 );
                        kernels[70] = compute_kernel(x,   1.004938505808  , -1.458960526205  , -0.0  , -0.364419659085  , -0.669773465299  , 1.284825528108  , 1.740520544178  , 0.821056891788 );
                        kernels[71] = compute_kernel(x,   1.110799454999  , -1.536402444876  , -0.0  , 0.209070372379  , -0.306288385732  , -0.488686787769  , -0.574540762156  , 0.821056891788 );
                        kernels[72] = compute_kernel(x,   -0.847628105034  , -0.839425176836  , -0.0  , 0.4002337162  , 1.325685440895  , 0.398069370169  , -0.574540762156  , -1.217942398392 );
                        kernels[73] = compute_kernel(x,   1.004938505808  , 1.096622789941  , -0.0  , 0.017907028557  , -0.024401997496  , -1.375442945707  , -0.574540762156  , 0.821056891788 );
                        kernels[74] = compute_kernel(x,   0.475633759853  , -0.142447908796  , -0.0  , -0.364419659085  , -0.35821482567  , -0.488686787769  , -0.574540762156  , 0.821056891788 );
                        kernels[75] = compute_kernel(x,   1.163729929595  , -0.994309014178  , -0.0  , 0.591397060021  , 1.340521566592  , -0.488686787769  , -0.574540762156  , -1.217942398392 );
                        kernels[76] = compute_kernel(x,   -0.847628105034  , 0.089877847217  , -0.0  , 0.4002337162  , 1.325685440895  , 0.398069370169  , -0.574540762156  , -1.217942398392 );
                        kernels[77] = compute_kernel(x,   1.110799454999  , -0.142447908796  , -0.0  , 0.209070372379  , -0.387887077063  , -0.488686787769  , -0.574540762156  , 0.821056891788 );
                        kernels[78] = compute_kernel(x,   1.004938505808  , -0.065005990125  , -0.0  , -0.364419659085  , -0.684609590995  , 0.398069370169  , 1.740520544178  , 0.821056891788 );
                        kernels[79] = compute_kernel(x,   1.110799454999  , 0.167319765888  , -0.0  , 0.209070372379  , -0.35821482567  , -0.488686787769  , -0.574540762156  , 0.821056891788 );
                        kernels[80] = compute_kernel(x,   1.163729929595  , 1.406390464625  , -0.0  , 0.591397060021  , 1.30343125235  , -0.488686787769  , -0.574540762156  , -1.217942398392 );
                        kernels[81] = compute_kernel(x,   0.978473268511  , -0.219889827467  , -0.0  , -0.364419659085  , -0.654937339602  , 0.398069370169  , 1.740520544178  , 0.821056891788 );
                        kernels[82] = compute_kernel(x,   1.110799454999  , -1.768728200889  , -0.0  , 0.209070372379  , -0.35821482567  , -0.488686787769  , -0.574540762156  , 0.821056891788 );
                        kernels[83] = compute_kernel(x,   1.004938505808  , 0.089877847217  , -0.0  , -0.364419659085  , -0.588174773967  , 1.284825528108  , 1.740520544178  , 0.821056891788 );
                        kernels[84] = compute_kernel(x,   0.846147082022  , -0.297331746139  , -0.0  , -0.555583002906  , -0.395305139911  , 0.398069370169  , -0.574540762156  , -1.217942398392 );
                        kernels[85] = compute_kernel(x,   -0.821162867736  , -3.007798899626  , -0.0  , -1.320236378191  , -1.901171898117  , -1.375442945707  , -0.574540762156  , 0.821056891788 );
                        kernels[86] = compute_kernel(x,   0.819681844724  , -1.14919285152  , -0.0  , -0.746746346727  , 0.242648265043  , -1.375442945707  , -0.574540762156  , -1.217942398392 );
                        kernels[87] = compute_kernel(x,   -0.212462409888  , 0.399645521901  , -0.0  , -0.555583002906  , -1.292890744556  , -0.488686787769  , -0.574540762156  , -1.217942398392 );
                        kernels[88] = compute_kernel(x,   0.87261231932  , 1.406390464625  , -0.0  , 0.017907028557  , -0.951659853534  , 1.284825528108  , -0.574540762156  , -1.217942398392 );
                        kernels[89] = compute_kernel(x,   0.846147082022  , -0.37477366481  , -0.0  , -0.555583002906  , -0.209853568704  , 0.398069370169  , -0.574540762156  , -1.217942398392 );
                        kernels[90] = compute_kernel(x,   1.190195166892  , 0.786855115256  , -0.0  , 0.4002337162  , 0.895437795694  , -0.488686787769  , -0.574540762156  , -1.217942398392 );
                        kernels[91] = compute_kernel(x,   0.555029471747  , -1.071750932849  , -0.0  , -1.702563065833  , -0.35821482567  , -0.488686787769  , -0.574540762156  , 0.821056891788 );
                        kernels[92] = compute_kernel(x,   1.666569438252  , 1.79360005798  , -0.0  , -0.173256315264  , -1.181619801831  , -1.375442945707  , -0.574540762156  , 0.821056891788 );
                        kernels[93] = compute_kernel(x,   0.422703285258  , 1.483832383296  , -0.0  , -1.702563065833  , -0.595592836815  , -0.488686787769  , -0.574540762156  , 0.821056891788 );
                        kernels[94] = compute_kernel(x,   0.87261231932  , -0.529657502152  , -0.0  , 0.209070372379  , -0.766208282326  , 1.284825528108  , -0.574540762156  , -1.217942398392 );
                        kernels[95] = compute_kernel(x,   0.87261231932  , 1.328948545954  , -0.0  , 0.209070372379  , -0.721699905237  , 1.284825528108  , -0.574540762156  , -1.217942398392 );
                        kernels[96] = compute_kernel(x,   0.846147082022  , -0.219889827467  , -0.0  , -0.364419659085  , -0.254361945794  , -1.375442945707  , -0.574540762156  , -1.217942398392 );
                        kernels[97] = compute_kernel(x,   0.449168522556  , -0.297331746139  , -0.0  , -1.511399722012  , 0.012688316745  , -0.488686787769  , -0.574540762156  , 0.821056891788 );
                        kernels[98] = compute_kernel(x,   0.158050912281  , -1.381518607534  , -0.0  , -1.893726409654  , -0.899733413596  , -1.375442945707  , -0.574540762156  , 0.821056891788 );
                        kernels[99] = compute_kernel(x,   0.39623804796  , -1.14919285152  , -0.0  , -2.084889753476  , -0.773626345175  , -0.488686787769  , -0.574540762156  , 0.821056891788 );
                        kernels[100] = compute_kernel(x,   1.110799454999  , -0.994309014178  , -0.0  , -0.173256315264  , -0.106000688827  , 0.398069370169  , -0.574540762156  , -1.217942398392 );
                        kernels[101] = compute_kernel(x,   0.846147082022  , 0.554529359243  , -0.0  , -0.555583002906  , -0.417559328456  , 0.398069370169  , -0.574540762156  , -1.217942398392 );
                        kernels[102] = compute_kernel(x,   0.952008031213  , 1.096622789941  , -0.0  , 0.017907028557  , -0.899733413596  , 1.284825528108  , -0.574540762156  , -1.217942398392 );
                        kernels[103] = compute_kernel(x,   0.87261231932  , -0.607099420823  , -0.0  , -0.364419659085  , -0.536248334029  , 0.398069370169  , -0.574540762156  , -1.217942398392 );
                        kernels[104] = compute_kernel(x,   0.316842336067  , -0.994309014178  , -0.0  , -2.276053097297  , -0.84038891081  , -1.375442945707  , -0.574540762156  , 0.821056891788 );
                        kernels[105] = compute_kernel(x,   1.163729929595  , 0.631971277914  , -0.0  , -0.364419659085  , -0.335960637125  , 0.398069370169  , -0.574540762156  , -1.217942398392 );
                        kernels[106] = compute_kernel(x,   0.846147082022  , -2.001053956902  , -0.0  , -0.364419659085  , -0.091164563131  , 0.398069370169  , -0.574540762156  , -1.217942398392 );
                        kernels[107] = compute_kernel(x,   0.819681844724  , -0.684541339494  , -0.0  , -0.555583002906  , 0.398427584857  , -1.375442945707  , -0.574540762156  , -1.217942398392 );
                        kernels[108] = compute_kernel(x,   0.87261231932  , 0.32220360323  , -0.0  , -0.746746346727  , -0.202435505855  , 0.398069370169  , -0.574540762156  , -1.217942398392 );
                        kernels[109] = compute_kernel(x,   -0.238927647186  , -0.219889827467  , -0.0  , -0.555583002906  , -1.003586293472  , -0.488686787769  , -0.574540762156  , -1.217942398392 );
                        kernels[110] = compute_kernel(x,   -0.080136223399  , -0.37477366481  , -0.0  , -1.702563065833  , -0.083746500283  , -1.375442945707  , -0.574540762156  , -1.217942398392 );
                        kernels[111] = compute_kernel(x,   0.819681844724  , 1.174064708612  , -0.0  , -0.555583002906  , -0.165345191614  , -1.375442945707  , -0.574540762156  , -1.217942398392 );
                        kernels[112] = compute_kernel(x,   0.39623804796  , -0.452215583481  , -0.0  , -1.702563065833  , -0.907151476444  , -1.375442945707  , -0.574540762156  , 0.821056891788 );
                        kernels[113] = compute_kernel(x,   1.110799454999  , -0.839425176836  , -0.0  , -0.173256315264  , 0.109123133773  , 0.398069370169  , -0.574540762156  , -1.217942398392 );
                        kernels[114] = compute_kernel(x,   1.137264692297  , -0.761983258165  , -0.0  , -0.364419659085  , -0.31370644858  , 0.398069370169  , -0.574540762156  , -1.217942398392 );
                        kernels[115] = compute_kernel(x,   0.87261231932  , -0.916867095507  , -0.0  , 0.017907028557  , -0.870061162203  , 1.284825528108  , -0.574540762156  , -1.217942398392 );
                        kernels[116] = compute_kernel(x,   1.110799454999  , 0.32220360323  , -0.0  , -0.173256315264  , -0.083746500283  , 1.284825528108  , -0.574540762156  , -1.217942398392 );
                        kernels[117] = compute_kernel(x,   0.819681844724  , -0.065005990125  , -0.0  , -0.555583002906  , 0.391009522009  , -1.375442945707  , -0.574540762156  , -1.217942398392 );
                        kernels[118] = compute_kernel(x,   -0.238927647186  , -0.839425176836  , -0.0  , -0.555583002906  , -1.062930796259  , -0.488686787769  , -0.574540762156  , -1.217942398392 );
                        kernels[119] = compute_kernel(x,   1.110799454999  , 1.638716220638  , -0.0  , 0.209070372379  , -0.84038891081  , 1.284825528108  , -0.574540762156  , -1.217942398392 );
                        kernels[120] = compute_kernel(x,   1.137264692297  , 0.477087440572  , -0.0  , -0.173256315264  , -0.083746500283  , 1.284825528108  , -0.574540762156  , -1.217942398392 );
                        kernels[121] = compute_kernel(x,   -0.344788596377  , -0.994309014178  , -0.0  , -0.555583002906  , -0.410141265608  , -0.488686787769  , -0.574540762156  , -1.217942398392 );
                        kernels[122] = compute_kernel(x,   0.87261231932  , 0.244761684559  , -0.0  , 0.017907028557  , -0.914569539293  , 0.398069370169  , -0.574540762156  , -1.217942398392 );
                        kernels[123] = compute_kernel(x,   -0.159531935292  , -1.304076688862  , -0.0  , -0.555583002906  , -1.292890744556  , -0.488686787769  , -0.574540762156  , -1.217942398392 );
                        kernels[124] = compute_kernel(x,   0.846147082022  , -2.388263550257  , -0.0  , -0.555583002906  , -0.284034197187  , 0.398069370169  , -0.574540762156  , -1.217942398392 );
                        kernels[125] = compute_kernel(x,   -0.900558579629  , -0.529657502152  , -0.0  , -0.937909690548  , -0.959077916382  , -0.488686787769  , -0.574540762156  , -1.217942398392 );
                        kernels[126] = compute_kernel(x,   0.846147082022  , 0.012435928546  , -0.0  , -0.555583002906  , -0.343378699973  , 0.398069370169  , -0.574540762156  , -1.217942398392 );
                        kernels[127] = compute_kernel(x,   -0.900558579629  , 0.477087440572  , -0.0  , -0.937909690548  , -1.181619801831  , -0.488686787769  , -0.574540762156  , -1.217942398392 );
                        kernels[128] = compute_kernel(x,   -0.477114782865  , -0.142447908796  , -0.0  , -1.320236378191  , -0.803298596568  , -1.375442945707  , -0.574540762156  , -1.217942398392 );
                        kernels[129] = compute_kernel(x,   -0.900558579629  , -0.219889827467  , -0.0  , -0.937909690548  , -1.270636556011  , -0.488686787769  , -0.574540762156  , -1.217942398392 );
                        kernels[130] = compute_kernel(x,   0.846147082022  , -1.923612038231  , -0.0  , -0.364419659085  , -0.321124511428  , 0.398069370169  , -0.574540762156  , -1.217942398392 );
                        kernels[131] = compute_kernel(x,   0.343307573365  , 1.948483895322  , -0.0  , -2.084889753476  , -0.944241790686  , -1.375442945707  , -0.574540762156  , 0.821056891788 );
                        kernels[132] = compute_kernel(x,   -0.212462409888  , 1.01918087127  , -0.0  , -0.555583002906  , -1.159365613287  , -0.488686787769  , -0.574540762156  , -1.217942398392 );
                        kernels[133] = compute_kernel(x,   0.846147082022  , 1.251506627283  , -0.0  , -0.555583002906  , -0.484321894091  , 0.398069370169  , -0.574540762156  , -1.217942398392 );
                        kernels[134] = compute_kernel(x,   -0.477114782865  , 0.244761684559  , -0.0  , -1.320236378191  , -0.832970847961  , -1.375442945707  , -0.574540762156  , -1.217942398392 );
                        kernels[135] = compute_kernel(x,   0.846147082022  , 0.631971277914  , -0.0  , 0.209070372379  , -0.677191528147  , 1.284825528108  , -0.574540762156  , -1.217942398392 );
                        kernels[136] = compute_kernel(x,   0.740286132831  , -3.782218086337  , -0.0  , -0.555583002906  , 0.405845647705  , -1.375442945707  , -0.574540762156  , -1.217942398392 );
                        kernels[137] = compute_kernel(x,   -0.477114782865  , 0.167319765888  , -0.0  , -1.320236378191  , -0.877479225051  , -1.375442945707  , -0.574540762156  , -1.217942398392 );
                        kernels[138] = compute_kernel(x,   -0.503580020163  , 2.103367732665  , -0.0  , -1.511399722012  , -0.907151476444  , -1.375442945707  , -0.574540762156  , -1.217942398392 );
                        kernels[139] = compute_kernel(x,   1.110799454999  , 0.167319765888  , -0.0  , -0.173256315264  , 0.101705070925  , 1.284825528108  , -0.574540762156  , -1.217942398392 );
                        kernels[140] = compute_kernel(x,   1.190195166892  , 0.089877847217  , -0.0  , 0.4002337162  , 0.420681773402  , -0.488686787769  , -0.574540762156  , -1.217942398392 );
                        kernels[141] = compute_kernel(x,   -0.212462409888  , -1.84617011956  , -0.0  , -0.555583002906  , -1.255800430315  , -0.488686787769  , -0.574540762156  , -1.217942398392 );
                        kernels[142] = compute_kernel(x,   -0.238927647186  , -0.065005990125  , -0.0  , -0.364419659085  , -1.174201738983  , -0.488686787769  , -0.574540762156  , -1.217942398392 );
                        kernels[143] = compute_kernel(x,   0.846147082022  , -0.607099420823  , -0.0  , -0.364419659085  , -0.26919807149  , -1.375442945707  , -0.574540762156  , -1.217942398392 );
                        kernels[144] = compute_kernel(x,   0.846147082022  , 2.025925813994  , -0.0  , -0.555583002906  , -0.26919807149  , 0.398069370169  , -0.574540762156  , -1.217942398392 );
                        kernels[145] = compute_kernel(x,   0.87261231932  , -1.071750932849  , -0.0  , -0.173256315264  , -0.469485768394  , 0.398069370169  , -0.574540762156  , -1.217942398392 );
                        kernels[146] = compute_kernel(x,   0.846147082022  , 0.244761684559  , -0.0  , -0.364419659085  , -0.284034197187  , -1.375442945707  , -0.574540762156  , -1.217942398392 );
                        kernels[147] = compute_kernel(x,   0.819681844724  , 0.32220360323  , -0.0  , -0.364419659085  , -0.261780008642  , -1.375442945707  , -0.574540762156  , -1.217942398392 );
                        kernels[148] = compute_kernel(x,   0.819681844724  , -0.839425176836  , -0.0  , -0.555583002906  , 0.413263710554  , -1.375442945707  , -0.574540762156  , -1.217942398392 );
                        kernels[149] = compute_kernel(x,   0.846147082022  , 1.096622789941  , -0.0  , -0.364419659085  , -0.380469014215  , 0.398069370169  , -0.574540762156  , -1.217942398392 );
                        kernels[150] = compute_kernel(x,   0.846147082022  , -2.698031224942  , -0.0  , -0.555583002906  , -0.40272320276  , 0.398069370169  , -0.574540762156  , -1.217942398392 );
                        kernels[151] = compute_kernel(x,   0.87261231932  , -0.607099420823  , -0.0  , -0.364419659085  , -0.202435505855  , 0.398069370169  , -0.574540762156  , -1.217942398392 );
                        kernels[152] = compute_kernel(x,   0.846147082022  , -0.994309014178  , -0.0  , 0.209070372379  , -0.729117968085  , 1.284825528108  , -0.574540762156  , -1.217942398392 );
                        kernels[153] = compute_kernel(x,   -0.159531935292  , -1.381518607534  , -0.0  , -1.702563065833  , 0.049778630987  , -1.375442945707  , -0.574540762156  , -1.217942398392 );
                        kernels[154] = compute_kernel(x,   0.369772810662  , 0.399645521901  , -0.0  , -2.084889753476  , -0.773626345175  , -0.488686787769  , -0.574540762156  , 0.821056891788 );
                        kernels[155] = compute_kernel(x,   0.87261231932  , 2.800345000704  , -0.0  , -0.173256315264  , -1.01100435632  , 0.398069370169  , -0.574540762156  , -1.217942398392 );
                        kernels[156] = compute_kernel(x,   1.084334217701  , 0.477087440572  , -0.0  , 0.209070372379  , -0.884897287899  , 1.284825528108  , -0.574540762156  , -1.217942398392 );
                        kernels[157] = compute_kernel(x,   0.819681844724  , -0.297331746139  , -0.0  , -0.746746346727  , -0.239525820097  , 0.398069370169  , -0.574540762156  , -1.217942398392 );
                        kernels[158] = compute_kernel(x,   -0.318323359079  , 0.32220360323  , -0.0  , -0.555583002906  , -0.781044408023  , -0.488686787769  , -0.574540762156  , -1.217942398392 );
                        kernels[159] = compute_kernel(x,   1.137264692297  , -0.065005990125  , -0.0  , -0.364419659085  , -0.298870322883  , 0.398069370169  , -0.574540762156  , -1.217942398392 );
                        kernels[160] = compute_kernel(x,   0.846147082022  , 0.786855115256  , -0.0  , -0.364419659085  , -0.439813517001  , 0.398069370169  , -0.574540762156  , -1.217942398392 );
                        kernels[161] = compute_kernel(x,   0.846147082022  , -0.065005990125  , -0.0  , 0.017907028557  , -0.929405664989  , 1.284825528108  , -0.574540762156  , -1.217942398392 );
                        kernels[162] = compute_kernel(x,   1.137264692297  , 0.631971277914  , -0.0  , -0.364419659085  , -0.365632888518  , 0.398069370169  , -0.574540762156  , -1.217942398392 );
                        kernels[163] = compute_kernel(x,   1.190195166892  , 1.251506627283  , -0.0  , 0.4002337162  , 0.858347481452  , -0.488686787769  , -0.574540762156  , -1.217942398392 );
                        kernels[164] = compute_kernel(x,   0.87261231932  , 0.32220360323  , -0.0  , 0.017907028557  , -0.907151476444  , 1.284825528108  , -0.574540762156  , -1.217942398392 );
                        float decision = -0.594366235852;
                        decision = decision - ( + kernels[0] * -0.5  + kernels[1] * -0.5  + kernels[2] * -0.5  + kernels[3] * -0.5  + kernels[4] * -0.5  + kernels[5] * -0.5  + kernels[6] * -0.5  + kernels[7] * -0.5  + kernels[8] * -0.5  + kernels[9] * -0.5  + kernels[10] * -0.172392934358  + kernels[11] * -0.5  + kernels[12] * -0.5  + kernels[13] * -0.5  + kernels[14] * -0.5  + kernels[15] * -0.160819893729  + kernels[16] * -0.5  + kernels[17] * -0.5  + kernels[18] * -0.5  + kernels[19] * -0.5  + kernels[20] * -0.5  + kernels[21] * -0.5  + kernels[22] * -0.5  + kernels[23] * -0.5  + kernels[24] * -0.5  + kernels[25] * -0.5  + kernels[26] * -0.5  + kernels[27] * -0.5  + kernels[28] * -0.5  + kernels[29] * -0.5  + kernels[30] * -0.5  + kernels[31] * -0.5  + kernels[32] * -0.5  + kernels[33] * -0.175007023959  + kernels[34] * -0.5  + kernels[35] * -0.5  + kernels[36] * -0.5  + kernels[37] * -0.5  + kernels[38] * -0.5  + kernels[39] * -0.5  + kernels[40] * -0.5  + kernels[41] * -0.5  + kernels[42] * -0.5  + kernels[43] * -0.5  + kernels[44] * -0.5  + kernels[45] * -0.5  + kernels[46] * -0.5  + kernels[47] * -0.5  + kernels[48] * -0.002579805811  + kernels[49] * -0.5  + kernels[50] * -0.5  + kernels[51] * -0.5  + kernels[52] * -0.5  + kernels[53] * -0.5  + kernels[54] * -0.5  + kernels[55] * -0.5  + kernels[56] * -0.5  + kernels[57] * -0.5  + kernels[58] * -0.5  + kernels[59] * -0.5  + kernels[60] * -0.5  + kernels[61] * -0.5  + kernels[62] * -0.5  + kernels[63] * -0.5  + kernels[64] * -0.5  + kernels[65] * -0.461096136818  + kernels[66] * -0.5  + kernels[67] * -0.5  + kernels[68] * -0.5  + kernels[69] * -0.5  + kernels[70] * -0.5  + kernels[71] * -0.5  + kernels[72] * -0.5  + kernels[73] * -0.5  + kernels[74] * -0.5  + kernels[75] * -0.5  + kernels[76] * -0.5  + kernels[77] * -0.5  + kernels[78] * -0.5  + kernels[79] * -0.5  + kernels[80] * -0.5  + kernels[81] * -0.5  + kernels[82] * -0.5  + kernels[83] * -0.409110683422 );
                        decision = decision - ( + kernels[84] * 0.5  + kernels[85] * 0.5  + kernels[86] * 0.5  + kernels[87] * 0.5  + kernels[88] * 0.5  + kernels[89] * 0.5  + kernels[90] * 0.5  + kernels[91] * 0.5  + kernels[92] * 0.5  + kernels[93] * 0.5  + kernels[94] * 0.5  + kernels[95] * 0.5  + kernels[96] * 0.5  + kernels[97] * 0.5  + kernels[98] * 0.5  + kernels[99] * 0.5  + kernels[100] * 0.5  + kernels[101] * 0.5  + kernels[102] * 0.5  + kernels[103] * 0.5  + kernels[104] * 0.5  + kernels[105] * 0.5  + kernels[106] * 0.5  + kernels[107] * 0.5  + kernels[108] * 0.5  + kernels[109] * 0.5  + kernels[110] * 0.5  + kernels[111] * 0.5  + kernels[112] * 0.5  + kernels[113] * 0.5  + kernels[114] * 0.5  + kernels[115] * 0.5  + kernels[116] * 0.5  + kernels[117] * 0.5  + kernels[118] * 0.5  + kernels[119] * 0.5  + kernels[120] * 0.5  + kernels[121] * 0.5  + kernels[122] * 0.5  + kernels[123] * 0.5  + kernels[124] * 0.5  + kernels[125] * 0.5  + kernels[126] * 0.5  + kernels[127] * 0.5  + kernels[128] * 0.5  + kernels[129] * 0.5  + kernels[130] * 0.5  + kernels[131] * 0.5  + kernels[132] * 0.5  + kernels[133] * 0.5  + kernels[134] * 0.5  + kernels[135] * 0.5  + kernels[136] * 0.5  + kernels[137] * 0.427765954798  + kernels[138] * 0.5  + kernels[139] * 0.5  + kernels[140] * 0.5  + kernels[141] * 0.5  + kernels[142] * 0.5  + kernels[143] * 0.5  + kernels[144] * 0.5  + kernels[145] * 0.5  + kernels[146] * 0.5  + kernels[147] * 0.5  + kernels[148] * 0.5  + kernels[149] * 0.5  + kernels[150] * 0.5  + kernels[151] * 0.5  + kernels[152] * 0.5  + kernels[153] * 0.5  + kernels[154] * 0.5  + kernels[155] * 0.5  + kernels[156] * 0.5  + kernels[157] * 0.453240523299  + kernels[158] * 0.5  + kernels[159] * 0.5  + kernels[160] * 0.5  + kernels[161] * 0.5  + kernels[162] * 0.5  + kernels[163] * 0.5  + kernels[164] * 0.5 );

                        return decision > 0 ? 0 : 1;
                    }

                protected:
                    /**
                    * Compute kernel between feature vector and support vector.
                    * Kernel type: rbf
                    */
                    float compute_kernel(float *x, ...) {
                        va_list w;
                        va_start(w, 8);
                        float kernel = 0.0;

                        for (uint16_t i = 0; i < 8; i++) {
                            kernel += pow(x[i] - va_arg(w, double), 2);
                        }

                        return exp(-0.01 * kernel);
                    }
                };
            }
        }
    }